{
  "groupnorm": {
    "input_shape": [
      1,
      32,
      8,
      8
    ],
    "num_groups": 8,
    "input_first10": [
      0.6653749942779541,
      -0.2341926246881485,
      1.6424084901809692,
      -0.7699444890022278,
      -0.27250128984451294,
      1.3715310096740723,
      -0.7349304556846619,
      -0.5927846431732178,
      0.336135596036911,
      1.4698123931884766
    ],
    "default_output_first10": [
      0.7643330097198486,
      -0.13242626190185547,
      1.7383164167404175,
      -0.6665055751800537,
      -0.17061534523963928,
      1.4682844877243042,
      -0.6316008567810059,
      -0.48989880084991455,
      0.43612146377563477,
      1.5662591457366943
    ],
    "default_output_absMax": 3.1847832202911377,
    "custom_weight_first5": [
      0.5,
      0.5483871102333069,
      0.5967742204666138,
      0.6451612710952759,
      0.6935483813285828
    ],
    "custom_bias_first5": [
      -0.5,
      -0.4677419364452362,
      -0.4354838728904724,
      -0.4032258093357086,
      -0.3709677457809448
    ],
    "custom_output_first10": [
      -0.11783349514007568,
      -0.5662131309509277,
      0.36915820837020874,
      -0.8332527875900269,
      -0.5853076577186584,
      0.2341422438621521,
      -0.8158004283905029,
      -0.7449494004249573,
      -0.2819392681121826,
      0.28312957286834717
    ],
    "custom_output_absMax": 5.597320556640625
  },
  "rope": {
    "dim": 64,
    "seq_len": 8,
    "input_first10": [
      -1.2778462171554565,
      -0.5660927891731262,
      0.45232388377189636,
      -0.15800891816616058,
      0.6617804169654846,
      -0.17868749797344208,
      1.6971709728240967,
      0.050755467265844345,
      -0.04226149991154671,
      0.42562973499298096
    ],
    "positions": [
      0.0,
      1.0,
      2.0,
      3.0,
      4.0,
      5.0,
      6.0,
      7.0
    ],
    "output_first10": [
      -1.2778462171554565,
      -0.5660927891731262,
      0.45232388377189636,
      -0.15800891816616058,
      0.6617804169654846,
      -0.17868749797344208,
      1.6971709728240967,
      0.050755467265844345,
      -0.04226149991154671,
      0.42562973499298096
    ],
    "output_absMax": 3.4376628398895264,
    "dot_product_pos0": 61.55376052856445
  },
  "selective_scan": {
    "d_model": 8,
    "d_state": 4,
    "seq_len": 6,
    "A": [
      0.8999999761581421,
      0.800000011920929,
      0.949999988079071,
      0.8500000238418579
    ],
    "x_first10": [
      0.6856945157051086,
      0.8179121017456055,
      -1.3065940141677856,
      2.1195173263549805,
      0.5312570333480835,
      -0.7918623685836792,
      -1.5795050859451294,
      0.36426252126693726,
      0.6990697383880615,
      1.128171443939209
    ],
    "B_first10": [
      0.49294668436050415,
      1.8086081743240356,
      0.9913751482963562,
      -0.6751440167427063,
      0.41732120513916016,
      -0.4340950846672058,
      2.003068685531616,
      -0.5748986005783081,
      1.0730491876602173,
      0.6129114627838135
    ],
    "C_first10": [
      -0.3912796080112457,
      -1.469170093536377,
      1.4104981422424316,
      1.1435792446136475,
      -0.5403605103492737,
      -1.0621932744979858,
      0.06943031400442123,
      0.8608394861221313,
      1.2310750484466553,
      0.9424923062324524
    ],
    "output_first10": [
      -0.15248343348503113,
      -0.1818857491016388,
      0.2905578911304474,
      -0.4713342785835266,
      -0.11813992261886597,
      0.17609283328056335,
      0.3512473702430725,
      -0.08100400865077972,
      -0.1596163511276245,
      -0.19393253326416016
    ],
    "output_absMax": 0.9697156548500061,
    "final_state_absMax": 0.5075764060020447
  }
}